{
  "mse": 0.0005742126510360553,
  "mae": 0.015725724942934595,
  "rmse": 0.023962734631841485,
  "r2": 0.9898982553933965,
  "mape": 1084298.8855339612,
  "max_error": 0.299670204604061,
  "bias": -0.00222160105667141,
  "n_samples": 4100,
  "coefficients": {
    "layer_1_weights": [
      [
        -0.30521549225707273,
        -0.2349423788883616,
        -0.8246998379631483,
        0.035312398461061684,
        -0.12709456680930706,
        0.4209331262301626,
        -0.31307848781181935,
        0.637867107014787,
        0.2840014051696493,
        -0.07250992751640833
      ]
    ],
    "layer_1_biases": [
      0.47348158703359255,
      0.1728039304632704,
      0.6458614021278403,
      -0.49018827580366664,
      0.3240010999858294,
      0.7331791953309335,
      -0.5365626061945108,
      0.19035651634924058,
      -0.28991182397332066,
      -0.12889361235786245
    ],
    "layer_2_weights": [
      [
        0.20287876031018542,
        -0.4633326795168141,
        -0.05005531482550602,
        0.5166620260285579,
        0.43941446467302414,
        0.0890726814912144,
        -0.13678284982482525,
        -0.22868899035877358,
        -0.12645615988181164,
        -0.38921938706577947
      ],
      [
        0.2197732064455153,
        0.2893869595489727,
        0.002487806242760891,
        -0.35502559301031894,
        -0.12843813502163637,
        -0.2134146069793369,
        -4.21920361604196e-07,
        -0.43387376144118267,
        -0.05226034804248969,
        -0.4332272696581258
      ],
      [
        -0.09756770076748612,
        -0.0003121602468239372,
        -0.22658946471965827,
        0.05118811572783128,
        -0.41136627513832724,
        -0.11309463436670289,
        0.005321539278249642,
        -0.40542702986355145,
        5.5575598933076483e-05,
        0.4919738657149254
      ],
      [
        0.14130905305230113,
        -0.12397402417375268,
        0.015612490823556884,
        0.010344971123526461,
        -0.011102364850023168,
        0.20235325175567082,
        0.054749084906520425,
        -0.12101475324081909,
        -0.0556263527626598,
        -0.20922843166434163
      ],
      [
        0.6281981342088555,
        0.08122941875678612,
        -0.0785151221401329,
        0.5140327035804242,
        0.24714520213227623,
        -0.08812030168167086,
        -0.003953742032798702,
        0.12208181911974426,
        -0.03973646212596431,
        0.1974800856843761
      ],
      [
        -0.06844700678467708,
        -0.14156586606596325,
        -0.079023358603461,
        -0.07434678139109947,
        0.2511307275331589,
        -4.1881059624820503e-05,
        -0.11708547496638337,
        -0.33528032425137455,
        -0.24845335600298502,
        0.3644440563605255
      ],
      [
        -0.076755061894221,
        -0.19721826354086994,
        0.009665227482351957,
        -4.066255272336243e-05,
        0.1774663241111142,
        -0.04329790121028629,
        9.393419926823608e-06,
        0.0005885848968252263,
        -0.22051062789763606,
        -0.08476414588371374
      ],
      [
        -0.6384768816811576,
        -0.0014678705602390483,
        0.11724644155159217,
        -0.2770083966783289,
        0.25160438075393576,
        -0.03312205237869404,
        -3.238957891752869e-05,
        -0.24051552270659723,
        -0.18503830959946152,
        -0.5530933517781149
      ],
      [
        -0.15725636888928812,
        0.04939919250045529,
        0.20860289886976563,
        -0.009108136632346631,
        0.02449660150434104,
        0.0002786191753420208,
        0.0031194128673210377,
        -0.34567093288547324,
        -0.005593200073928401,
        0.3393667472145373
      ],
      [
        -0.10313286814412938,
        -0.244424512067252,
        0.008464361201671716,
        -0.09389817368609786,
        0.14283109820681192,
        -0.179419650759622,
        -0.24387669686640503,
        -0.005255772566637343,
        0.05119607554329464,
        0.17264372695172844
      ]
    ],
    "layer_2_biases": [
      0.3862819400571312,
      0.3294531760189229,
      -0.3869824503927807,
      0.07700280805058966,
      0.014822957606183157,
      -0.32029581640002425,
      -0.5171864038005466,
      0.4766382918223724,
      -0.42698453155915816,
      0.05703839622930761
    ],
    "output_weights": [
      [
        -0.15143269116098582
      ],
      [
        -0.47010235140859563
      ],
      [
        -0.25364841371448105
      ],
      [
        -0.7981200823483912
      ],
      [
        0.5661654983593357
      ],
      [
        0.1640346977740838
      ],
      [
        -2.3741072362072428e-05
      ],
      [
        -0.44457114118655094
      ],
      [
        0.06517909067159185
      ],
      [
        -0.834775179133535
      ]
    ],
    "output_biases": [
      0.5319555649023919
    ]
  }
}