{
  "mse": 0.0006870134373908785,
  "mae": 0.01385745374129499,
  "rmse": 0.026210941177128275,
  "r2": 0.9879138255256036,
  "mape": 127554.28590066024,
  "max_error": 0.3016887110749711,
  "bias": -0.001631262009023927,
  "n_samples": 4100,
  "coefficients": {
    "layer_1_weights": [
      [
        -0.2464659047791791,
        0.07996694066662138,
        0.7333639985825844,
        -0.04793744485475194,
        0.07603571361998201,
        -0.015781548595115658,
        0.03650673483139629,
        -0.12598349654643118,
        0.5948447340150131,
        -0.38792516877020233
      ]
    ],
    "layer_1_biases": [
      -0.6867325282696275,
      0.17435958007405097,
      0.007103912246472371,
      -0.17700720494432998,
      -0.5948127002134174,
      -0.00548869100418298,
      -0.38586096970932243,
      -0.07539346319470541,
      -0.04868624667470441,
      0.5877630828449867
    ],
    "layer_2_weights": [
      [
        -0.11086028362142507,
        0.09568457847121366,
        0.17785223341108478,
        0.13860817006895954,
        -0.0026045696206412855,
        -0.15680914491748826,
        0.11272236290207484,
        0.17325401778729838,
        0.10770301995947743,
        0.17999931513762604
      ],
      [
        -0.17450156818412418,
        -0.05339426437653348,
        0.15434166116891793,
        -0.33913410750202,
        0.3400464932417733,
        0.40879687841900725,
        -0.2565936517032885,
        0.5473153616090032,
        0.24724538075257907,
        -0.3681584935115656
      ],
      [
        -0.34415274557009906,
        -0.34736255585383263,
        -0.04933129290432432,
        -0.4636763010227168,
        -0.08356431280786994,
        0.18712466390197963,
        0.1260122014981398,
        -0.3266796417947792,
        -0.20446388913506922,
        -0.39271899333260923
      ],
      [
        -0.14875353298338467,
        0.164225779672874,
        -0.06929517770679627,
        0.18812037926734182,
        -0.0685920381148138,
        -0.1305733396282266,
        0.010903335140662945,
        4.713336083951822e-06,
        0.016138073917046074,
        -0.0014704595548432537
      ],
      [
        0.23023486385804043,
        0.1934576642381839,
        -0.2112539105923704,
        -0.06972396087305734,
        0.06371351524588326,
        -0.25109930493617977,
        0.00210672933112522,
        -3.044029201048685e-09,
        -0.0379124111540933,
        -9.145230604478036e-07
      ],
      [
        0.012387851901696889,
        0.00428613157026563,
        -0.24965042801088244,
        0.11508284629412947,
        0.1674440805814044,
        -0.0992546500696281,
        -0.004574367406420007,
        -0.2268739708979069,
        0.18157374201850424,
        -0.014542993528447241
      ],
      [
        0.00020952845798711227,
        -0.010237331122090191,
        -0.26240459867370397,
        0.00961337962144727,
        -0.22108178047920046,
        0.01285615404080314,
        -0.08243051130679524,
        0.21752058692230788,
        -0.21144392710945964,
        0.1035517434242566
      ],
      [
        -0.2126935659957098,
        -0.2526247289050728,
        -0.005328063953276955,
        0.027166865444759238,
        0.25584060838806155,
        -0.008431663654863562,
        -0.09134874633533069,
        0.096930081716418,
        -0.00037018914557826097,
        -0.021930525352912834
      ],
      [
        0.2648605578159372,
        0.02463855670563806,
        -0.21402859447613326,
        0.001206605118413426,
        0.4073706069786342,
        0.00552770279406807,
        0.5946677268744047,
        0.3326607647365427,
        -0.18301680132302964,
        -0.0258299152514749
      ],
      [
        0.03642540788663087,
        0.5563938728034703,
        0.0012567125927231046,
        -0.061035809785046795,
        -0.19691886993664437,
        -0.019476011273978897,
        0.31525057974798576,
        -0.538391346839831,
        0.4667085923771294,
        -0.010415549763506645
      ]
    ],
    "layer_2_biases": [
      0.4174219900045343,
      0.025096212242477784,
      -0.5076760764913361,
      0.0921891177946473,
      0.32996419817483347,
      0.16667003275756076,
      0.13576229296824002,
      0.5872859946194032,
      0.02923810787312594,
      0.06131192517724084
    ],
    "output_weights": [
      [
        -0.38514713727567823
      ],
      [
        -0.7578022040780793
      ],
      [
        -0.13867570010709374
      ],
      [
        0.048161365488391936
      ],
      [
        0.5206182492829712
      ],
      [
        0.7883137424335372
      ],
      [
        0.6383240424961293
      ],
      [
        0.12968093981542306
      ],
      [
        -0.3379316427712119
      ],
      [
        0.08310257000079767
      ]
    ],
    "output_biases": [
      -0.014038978581728577
    ]
  }
}