{
  "mse": 0.0008089351979724481,
  "mae": 0.0176809846640465,
  "rmse": 0.028441786124862978,
  "r2": 0.9857689363714545,
  "mape": 1203843.0032542264,
  "max_error": 0.36721966407406526,
  "bias": 0.0006594128825433344,
  "n_samples": 4100,
  "coefficients": {
    "layer_1_weights": [
      [
        0.31374845508816046,
        0.5644651457467593,
        -0.23825571791674766,
        0.014554488674414622,
        0.7189920488978581,
        -0.5623682013727656,
        -0.0025925722679236906,
        0.7798912789033529,
        -0.5283615917321351,
        -0.09472914190274768
      ]
    ],
    "layer_1_biases": [
      0.4800852273093991,
      0.8134407290717172,
      0.38031610530227755,
      -0.3405302194695678,
      0.4307963208689354,
      0.42078171183393404,
      -0.6386601277327871,
      0.04481428045860357,
      0.31526570331090514,
      -0.6740157891465832
    ],
    "layer_2_weights": [
      [
        -0.0015727659391585405,
        0.37944543962904864,
        -0.3020460481012628,
        0.41171308556369757,
        -0.013322244575052537,
        -2.1011805237023935e-13,
        -0.35027230735203113,
        0.41210164412367484,
        -0.005317504145348309,
        0.03719549702449554
      ],
      [
        -0.0432071155062721,
        -0.47978565358037056,
        0.36935063725903317,
        0.3119346064451249,
        0.0010401178408738642,
        0.06215221310157607,
        0.3911621620026659,
        -0.2845066245927519,
        -0.0001172275797077111,
        -0.1977864904591027
      ],
      [
        1.409524616828442e-07,
        0.23053496664812032,
        -0.235182486178924,
        0.23709601124722005,
        8.970160472652421e-06,
        -2.4402306954261317e-06,
        -0.023151714340221598,
        -0.5405882595129303,
        0.00019272921560887162,
        0.3670888646364963
      ],
      [
        -0.04311887295632109,
        0.009614694527616865,
        -0.1307816127712172,
        0.00019807217384324756,
        -0.0010354128193443243,
        -0.06470193024682885,
        -0.088283657002404,
        3.488613580233939e-05,
        -0.032836710251579165,
        -0.042454913516577764
      ],
      [
        1.790619933840809e-06,
        -0.3718109747557543,
        0.6595197204611495,
        -0.3352247933114558,
        0.05294873764894321,
        -0.05447712905594155,
        -0.2862800185754296,
        0.09502389991233913,
        -0.013533130164325696,
        0.06536208708738603
      ],
      [
        -0.12428872513635728,
        -0.38643554749859715,
        -0.2058035585163496,
        -0.17390048129684788,
        0.024953383789698632,
        -0.0051643972728952535,
        -0.034525904178084606,
        0.006907474755501227,
        -0.0009266243404657284,
        0.48924375544946086
      ],
      [
        0.0011332791034773756,
        -0.033056808633568795,
        0.10131228613593252,
        -5.135595017008545e-07,
        -0.00020218613751479838,
        0.10886167405745012,
        7.885050987118112e-05,
        0.07978167546654803,
        0.00013264630040196588,
        -0.0001929296701758426
      ],
      [
        6.840355807508416e-12,
        -0.03075701668036838,
        0.1154468238413442,
        0.9149234964454157,
        -0.008313461793622847,
        0.0003730871164796982,
        0.253948153785717,
        -0.43423008647995526,
        -0.0028423496418006123,
        -0.13377563964439115
      ],
      [
        0.0005202966980765328,
        0.43738863929479027,
        0.07924087935596,
        -0.4231034414117008,
        -8.156672181113e-09,
        -0.045681146194526526,
        -0.30012308084720546,
        -0.3277532932317637,
        -0.11924840617953848,
        0.19290611747594014
      ],
      [
        0.0006456581694373,
        -0.048765948465015314,
        -0.022308117630726185,
        0.006637302989894021,
        -0.08335444761981747,
        0.01734171558358595,
        1.0212749394981253e-11,
        -0.11900953861765255,
        0.00017798024754407777,
        0.04530049959283973
      ]
    ],
    "layer_2_biases": [
      -0.448879721872102,
      0.23526900752965618,
      0.3973240422028315,
      0.5545356714223435,
      -0.3596107960108861,
      -0.33495794848111404,
      -0.13454252188314894,
      0.0349351361640639,
      -0.25827850130830804,
      0.2054254729323827
    ],
    "output_weights": [
      [
        0.18006865595198746
      ],
      [
        -0.21958719922704403
      ],
      [
        0.4764704707846072
      ],
      [
        0.4754473894763998
      ],
      [
        1.0475980450176766e-11
      ],
      [
        0.26264813315383645
      ],
      [
        -0.15573970827902445
      ],
      [
        -0.4813929667631263
      ],
      [
        0.007387680084552243
      ],
      [
        -0.23727370512484094
      ]
    ],
    "output_biases": [
      -0.5947383602505911
    ]
  }
}