{
  "mse": 0.002498336694561062,
  "mae": 0.04334462528145605,
  "rmse": 0.04998336417810492,
  "r2": 0.9743573765439908,
  "mape": 58.19737616079736,
  "max_error": 0.16558806058707198,
  "bias": -0.0012359444322639953,
  "n_samples": 900,
  "coefficients": {
    "layer_1_weights": [
      [
        0.253348189488528,
        -0.0017837275567970368,
        -6.740823178547647e-09,
        0.9468843735527891,
        -0.1489395407406802,
        -0.3224154474733226,
        -0.39037466122908543,
        0.3997998616821104,
        -0.05182392845063087,
        -0.22002965624531995
      ]
    ],
    "layer_1_biases": [
      0.09724878180839894,
      -0.4116927172297793,
      -0.304628100861709,
      0.3661951068273989,
      -0.6146502941063816,
      -0.15212113117293624,
      0.6133931251424569,
      -0.0816922855176622,
      0.15327397896221778,
      0.17976023331965804
    ],
    "layer_2_weights": [
      [
        -0.13007903473782775,
        -0.026061977810397725,
        -0.34066073654838475,
        0.11778969683163208,
        0.02898464545684867,
        2.4274761990366717e-06,
        0.401065265167056,
        1.6059898705115254e-09,
        -0.34364768135170604,
        1.5607114357614143e-12
      ],
      [
        0.19768720310777965,
        2.1145148960599862e-08,
        -3.014878558770356e-11,
        -0.055872026773986595,
        -0.00465550110213558,
        -0.023842652236203663,
        -0.21211411687451892,
        0.06283400529014949,
        0.0012789872128977978,
        0.1524224249349079
      ],
      [
        -0.03802618063284606,
        -0.14045916131938008,
        -0.26514719634919887,
        -0.011485593000544208,
        0.022038189871774482,
        0.22893114647334725,
        0.000301928639367215,
        0.00041040760419098804,
        -0.15180420956917645,
        0.015524738487397376
      ],
      [
        -0.060412609432693366,
        0.6908228689035788,
        -0.32918443575906803,
        -0.34696177010823487,
        -0.16085474808229583,
        -0.10513609104499928,
        -0.027131237364138285,
        0.01631785231342985,
        -0.2921059859731175,
        7.426399642830107e-05
      ],
      [
        -0.05557405264329283,
        -0.014993343075463574,
        -0.156913985185233,
        -0.2327909473214193,
        -0.0704094970334107,
        4.299867318672449e-09,
        0.055627731231497134,
        -0.0005741656914599269,
        -0.20385774634844317,
        -3.541492880238331e-12
      ],
      [
        0.06288641846112204,
        0.11675781656631293,
        0.000191544020854794,
        0.12524651456609037,
        -0.00032105599732524636,
        -0.03134213564798714,
        0.16385394865872954,
        1.441869834725182e-07,
        -0.0592758960585322,
        -0.00040969186509321484
      ],
      [
        -0.0765256604807708,
        -0.11458123547743841,
        0.017449652354532965,
        -0.09285710258385109,
        -2.1218810251154426e-06,
        -0.15442415928091782,
        -0.5844913818302352,
        0.01786852343764523,
        0.170673640458983,
        0.13010053905299876
      ],
      [
        0.12570331601904539,
        0.5578205703996924,
        -0.22758745188488266,
        0.3865500310526826,
        -0.15608536389889002,
        0.13980038822557708,
        0.060701601644393054,
        -0.08641213032399904,
        0.3226324028368576,
        -0.028015236907637207
      ],
      [
        -0.035244146642341635,
        -0.34586375852261203,
        -0.13516864718094937,
        0.04513010809189764,
        0.0760663622686015,
        0.2507047823441444,
        0.1721175186751009,
        0.0039529053790716565,
        -0.32749812491713476,
        0.04895659659960283
      ],
      [
        2.4808497635491598e-05,
        -0.4730741597612509,
        0.5062361159728987,
        0.37923430443530026,
        -0.019085590092888648,
        -0.07372559131942819,
        0.1869332264412466,
        -0.2169541235423116,
        -0.11877025380128534,
        -0.1541206428400696
      ]
    ],
    "layer_2_biases": [
      -0.02565236091077827,
      0.017124784648256133,
      0.0753806976984849,
      0.29360867646670785,
      -0.010978973118844992,
      -0.270258459362092,
      0.01008678952620557,
      -0.20490434674058378,
      0.3676638161290348,
      -0.33919019681477314
    ],
    "output_weights": [
      [
        0.20162384654606796
      ],
      [
        0.7170031280429746
      ],
      [
        -0.14507056763099271
      ],
      [
        -0.6239670155979788
      ],
      [
        -7.106169827730555e-11
      ],
      [
        0.3736561321992033
      ],
      [
        -0.06077482840977807
      ],
      [
        0.0012366352809836465
      ],
      [
        -0.14039731116260867
      ],
      [
        -0.3150101658340243
      ]
    ],
    "output_biases": [
      0.14864193121049804
    ]
  }
}