{
  "mse": 0.001724080784946076,
  "mae": 0.02830489840036636,
  "rmse": 0.04152205179113956,
  "r2": 0.9823042448712541,
  "mape": 20.96987236275006,
  "max_error": 0.18146855825446662,
  "bias": 0.0016164340928729825,
  "n_samples": 900,
  "coefficients": {
    "layer_1_weights": [
      [
        -0.4052011181112409,
        0.7793117432747143,
        -0.1269973526601006,
        0.26212706438239153,
        0.5705420791132217,
        0.1854894894442402,
        0.5971427645562388,
        -0.7530520827292178,
        -0.13301744896905832,
        -0.4344259108548192
      ]
    ],
    "layer_1_biases": [
      0.6402096636670566,
      -0.3041409481522746,
      -0.5477538362554225,
      -0.20944177142516557,
      0.7239463715774093,
      -0.4158952485902849,
      -0.10874693654937365,
      0.7682125627027618,
      0.46039251394912506,
      -0.17689203234472828
    ],
    "layer_2_weights": [
      [
        0.555896368943888,
        0.3874416707909601,
        0.11907924467074979,
        0.5071498095457131,
        -0.2588775973461478,
        -0.40870514985969575,
        0.1529485462376464,
        -0.5340178680996708,
        -0.2499281893568347,
        -0.20317354245063163
      ],
      [
        -0.16357989030063858,
        0.48708961925930494,
        0.027864697635491327,
        -0.09624747709816388,
        0.1875477150390673,
        0.23213548651370744,
        0.6199058411587364,
        0.37122799830816167,
        0.04716245791753901,
        -0.07743270445601173
      ],
      [
        -0.15614847899836068,
        -0.14090870542568107,
        0.10979301118499833,
        0.16657138522484108,
        0.3935118983388788,
        0.14068109669432743,
        0.3628818133671835,
        0.2786649524052072,
        0.32214116502066886,
        -0.002727915444134544
      ],
      [
        -0.03427936979849084,
        -0.07256829325916046,
        0.06482188017495821,
        -0.15480909469881857,
        -0.03307693408616601,
        -0.009945447482009644,
        0.0006770024341246447,
        -0.4226234055341907,
        -0.2971381168551019,
        -0.4049544254296069
      ],
      [
        0.1379997674414592,
        0.3953783128520754,
        -0.20083982899874236,
        0.03250990152584528,
        -0.21861324589451964,
        2.564595767607661e-06,
        0.4438102191022535,
        -0.1820543025275759,
        -0.5540522920561177,
        0.07999029676754198
      ],
      [
        -0.34744327138426995,
        -0.3619580989202118,
        -0.41900064714631685,
        0.06794758208490322,
        -0.29349096215394976,
        -0.2314123402118358,
        -0.000976018216525931,
        -0.14466778849349285,
        -0.42691290207466953,
        0.21504562809951214
      ],
      [
        -0.5521723355521836,
        -0.3772430453436735,
        0.09232772850707263,
        0.10898482960894826,
        -0.4047882805839737,
        -0.11186716348517535,
        -0.3253088283628205,
        -0.01786781591362659,
        0.2258816290616657,
        0.46724659138860325
      ],
      [
        0.46706829032575486,
        -0.40102582839189405,
        -0.17593722882951937,
        0.34532364313097974,
        1.0199622957885085e-09,
        0.3751797920347699,
        -0.34828836495394133,
        -0.03469435343888935,
        0.24739139266595433,
        0.09264919712817493
      ],
      [
        0.17621295924833577,
        0.45521385841802847,
        -0.4516354041727893,
        0.15530930768218768,
        -0.19522425452691844,
        -0.08235640844401035,
        -0.3546277049994714,
        -0.30129557787614974,
        0.28745390323770437,
        0.20358649290244343
      ],
      [
        -0.33720422649736653,
        0.3162179217586113,
        0.030938851574798074,
        -0.22753222394399045,
        0.24056450748927954,
        0.2588813783428227,
        -0.014138306373253846,
        0.3898230252400869,
        0.0753991068152536,
        -0.014936391598393644
      ]
    ],
    "layer_2_biases": [
      -0.254382749151899,
      0.21606736459200873,
      0.42655810747411743,
      -0.28347226520841096,
      0.0492997002849459,
      -0.392906876793231,
      0.4542845301911447,
      0.33480105882728495,
      0.5302857307728553,
      -0.0346710024464196
    ],
    "output_weights": [
      [
        -0.7426808466841973
      ],
      [
        0.11618314653097303
      ],
      [
        -0.4619523079172072
      ],
      [
        -0.18257281786477175
      ],
      [
        -0.41936846850704207
      ],
      [
        0.10732194493247937
      ],
      [
        0.3689264782493625
      ],
      [
        -0.25172622430005565
      ],
      [
        -0.2209705258576019
      ],
      [
        0.2305512306357666
      ]
    ],
    "output_biases": [
      0.37889513721262896
    ]
  }
}