{
  "mse": 0.0022264628712352417,
  "mae": 0.03411553281168255,
  "rmse": 0.04718540951645161,
  "r2": 0.9771478563437179,
  "mape": 40.66258382653219,
  "max_error": 0.1982497256613719,
  "bias": -0.0030315799052194306,
  "n_samples": 900,
  "coefficients": {
    "layer_1_weights": [
      [
        -0.07983091459084701,
        -0.3160571740527972,
        0.3918716515319705,
        -0.22534346813339126,
        -0.7938753798692749,
        0.661906083165068,
        -0.3284271079296364,
        -0.4266393912178103,
        -0.2326617799858716,
        -0.29796971909927705
      ]
    ],
    "layer_1_biases": [
      -0.6459179350881052,
      -0.6743474580766837,
      -0.6478907471949241,
      0.17032016892131205,
      0.5494571797039842,
      0.6658390759291969,
      -0.5530577681621245,
      0.32842664138324573,
      0.20358843319758477,
      -0.09674376800972351
    ],
    "layer_2_weights": [
      [
        0.019237530703580592,
        3.4409660904844695e-05,
        -0.24716975284562612,
        0.023105085063567857,
        -7.604354888753442e-06,
        0.0368338308059228,
        -0.17649899833154115,
        0.3229436146676671,
        -0.18825416063430664,
        -0.0602629740395532
      ],
      [
        0.0050292701201844914,
        -0.09514732183910608,
        0.03140344268954519,
        -0.1691942906421044,
        -0.3022992049123182,
        -0.015030244937152808,
        -0.07466104292621613,
        5.1005471587485795e-05,
        0.32436675530155695,
        -0.21824704035605677
      ],
      [
        0.30854702106853027,
        0.006306371116412196,
        0.025525020337806233,
        -0.1438791428942223,
        3.4939400612834075e-07,
        7.689112853113646e-07,
        0.07256078066782383,
        -1.1628022714442518e-08,
        -0.07554955117287898,
        -0.17243342673271603
      ],
      [
        0.20585294310982596,
        0.24785103978593445,
        0.5983530842103366,
        -0.35080346146883545,
        -0.14905091538434834,
        -0.06670149570199704,
        0.3445617990626067,
        -0.659947025042324,
        -0.3094052220077416,
        0.28265366353198884
      ],
      [
        -0.3063011891845967,
        -0.14698900049781663,
        0.550036501541805,
        0.1188103086916305,
        -0.16972591235365128,
        -0.17809621523748145,
        -0.06186403324631451,
        -0.6135486991934955,
        0.349606201801809,
        -0.49829622569929904
      ],
      [
        -0.3480577285127902,
        -0.27878943187936955,
        0.32720781220944295,
        0.15538908336248355,
        -0.3326421798871906,
        -0.030990156884927823,
        -0.3292643558789906,
        0.7400275963506533,
        -0.4270556120857442,
        0.3308542123761922
      ],
      [
        -0.1498984651801269,
        0.04071777380721799,
        -1.430373877535233e-07,
        0.2060426999085372,
        7.996823373866245e-09,
        0.007129871940859821,
        1.2467927676709814e-05,
        -0.13380622510274048,
        -0.06588291727787612,
        -0.20401114576091411
      ],
      [
        -0.2329535008340444,
        0.013536147564320216,
        0.6628222349190543,
        0.2654725422222096,
        -0.21159070294790314,
        0.2995364390073314,
        -6.945527877657216e-07,
        -0.5865412413067932,
        -0.22541362342222257,
        -0.32541874775706414
      ],
      [
        0.056142671562759976,
        0.6823975381249153,
        0.13991130914217917,
        -0.525959178992561,
        -0.0506445088721222,
        0.4126759923065144,
        0.20875364859776183,
        0.11805567598199176,
        0.2386777717559204,
        -0.5741727762661528
      ],
      [
        0.3391823571747761,
        0.3042795257835229,
        0.10516034851533242,
        -0.001712261964080377,
        -0.1094761941964363,
        -0.1619604442014659,
        0.05130491750621229,
        0.24900681510368392,
        -0.13177639134599967,
        0.17516590453601175
      ]
    ],
    "layer_2_biases": [
      -0.17951400743225931,
      0.5197665090906405,
      -0.291661954910993,
      0.3037305320975355,
      -0.22122196206758643,
      0.37748336595084936,
      -0.05287208703169055,
      -0.06679792794304183,
      0.10735258919032233,
      -0.40377252483358583
    ],
    "output_weights": [
      [
        -0.3078651664471718
      ],
      [
        -0.20291973192123394
      ],
      [
        -0.6503107634702514
      ],
      [
        0.5893424546516266
      ],
      [
        0.3997251228486251
      ],
      [
        -0.4789011725542932
      ],
      [
        -0.2767244309299394
      ],
      [
        0.38298583646841167
      ],
      [
        0.25867520655264314
      ],
      [
        -0.29136433962788194
      ]
    ],
    "output_biases": [
      0.46521710196248384
    ]
  }
}