{
  "mse": 0.0014681413579149282,
  "mae": 0.03212440410382848,
  "rmse": 0.038316332782704146,
  "r2": 0.9848365528023593,
  "mape": 65.35111297045702,
  "max_error": 0.08700259390622844,
  "bias": -0.00012823574975956615,
  "n_samples": 900,
  "coefficients": {
    "layer_1_weights": [
      [
        -0.6601958416279705,
        -0.08224592786121307,
        0.7096794840272648,
        0.5209448773220903,
        -0.5213530644331521,
        -0.7285962333238137,
        -0.5975724301423758,
        0.6455061970258772,
        -0.2412558665748623,
        -0.29220822741902347
      ]
    ],
    "layer_1_biases": [
      0.28102895322124194,
      -0.43107594039256203,
      -0.18835201536351812,
      -0.6975644644362475,
      0.00847291661263036,
      0.6779287325382598,
      0.478207645500782,
      0.5334759129339225,
      -0.18393268831152698,
      -0.48707947637865107
    ],
    "layer_2_weights": [
      [
        -0.38134717533976437,
        -0.27873653612685584,
        -0.26944408783639673,
        -0.0350889580657224,
        -0.38269616501370435,
        0.4208124428785938,
        0.42174881079310034,
        0.17279300735067932,
        0.20923869698571143,
        0.1474183032613431
      ],
      [
        -0.18390112614548218,
        -0.13217165140163645,
        -0.38579190245158984,
        0.20402763986317846,
        0.09997110082306693,
        0.4126436649540322,
        -0.10856607694831817,
        -0.17602681903593329,
        -0.451894747976805,
        0.3920443441039871
      ],
      [
        0.01500469973193307,
        -0.19521032983370695,
        0.048217046920012566,
        -0.5147932609933675,
        0.4059819400041827,
        -0.4679979129073966,
        0.38089971602153627,
        -0.22958337021963543,
        0.1306968939941289,
        0.26135463606418147
      ],
      [
        0.2550349548150473,
        -0.27804989303774386,
        -0.10880314485179499,
        -0.2048696306618221,
        -0.31634454707819487,
        0.1190721741474254,
        -0.026639195041586045,
        -0.028853407155547597,
        -0.2734715748909943,
        -0.030859356026722535
      ],
      [
        -0.14728078608113274,
        0.23683019594203464,
        0.13435114824727099,
        0.07381162150936593,
        0.28238527195540486,
        -0.26239719929948235,
        0.16449742171133105,
        -0.01906342996966935,
        -0.08312897583755939,
        0.06768198133672397
      ],
      [
        0.07569027274772488,
        0.12082530054740875,
        0.14950389505752695,
        -0.253690228241198,
        -0.3038697571245453,
        -0.007080403193524745,
        0.2631861035565182,
        0.15365134096899968,
        -0.2608473915034684,
        -0.4941953691716351
      ],
      [
        -0.19331237857811634,
        -0.3828963124680659,
        0.06981816323285035,
        0.10767385873047296,
        -0.0706860007125474,
        0.4403185785556747,
        0.3188297081584091,
        -0.16280936465611254,
        0.46508648258503776,
        -0.2815158717198998
      ],
      [
        0.4284615400415999,
        -0.2704449904134456,
        0.25760422536362876,
        0.5067429379069841,
        -0.01647111535908226,
        0.037793290026575,
        0.27227455831605896,
        -0.3008457064130615,
        0.37684892917340335,
        0.27743449905225875
      ],
      [
        0.1154615344288875,
        -0.3564170635964804,
        -0.029390823976325597,
        -0.41221185655934584,
        0.41322179042971613,
        0.3083407442919881,
        0.28010558096291277,
        0.09257277357059686,
        0.3179505985973782,
        0.14810247702503446
      ],
      [
        0.05157350444280939,
        0.3498929016123891,
        -0.16727301916933612,
        0.39141271046143783,
        0.2847279071343724,
        -0.364966531602797,
        0.08089969580126646,
        -0.18644178210482684,
        0.2995878723263241,
        -0.31265514843715075
      ]
    ],
    "layer_2_biases": [
      0.15977221807384073,
      0.3265536335092675,
      0.18562687927016175,
      0.029254200796886513,
      0.3450660536846557,
      0.44407908259481693,
      0.14593759529621894,
      0.5246218417750916,
      0.3652248720990378,
      -0.3087933315258434
    ],
    "output_weights": [
      [
        0.7233539466378536
      ],
      [
        0.2756798463275346
      ],
      [
        -0.6036306657070905
      ],
      [
        -0.20805261092615485
      ],
      [
        0.629226361126646
      ],
      [
        -0.7088905696033609
      ],
      [
        0.5763392625019558
      ],
      [
        0.06173734708914725
      ],
      [
        0.3559905162672482
      ],
      [
        0.6045193492748357
      ]
    ],
    "output_biases": [
      0.010289020880340484
    ]
  }
}