{
  "mse": 0.0018715594250109891,
  "mae": 0.03330303865530655,
  "rmse": 0.043261523609449876,
  "r2": 0.9806699182163865,
  "mape": 103.47769544676953,
  "max_error": 0.11359992966622579,
  "bias": 0.0031774300190795975,
  "n_samples": 900,
  "coefficients": {
    "layer_1_weights": [
      [
        0.1432798581942184,
        -0.0066210410934985486,
        0.010038487137259406,
        -0.11675745951926003,
        0.3895505870830875,
        -0.1993018901265876,
        0.8342946792048042,
        0.7126780491981197,
        0.07095572047023094,
        0.23705627994901973
      ]
    ],
    "layer_1_biases": [
      0.34099707059241346,
      -0.6255144106394472,
      -0.19524971448905648,
      -0.3968770492627421,
      -0.6840540739231682,
      0.16287736742246942,
      -0.23768001151444493,
      0.9054016096148039,
      -0.7160887002471056,
      0.7493719656550073
    ],
    "layer_2_weights": [
      [
        -0.21144191587863057,
        0.6105357201572371,
        -0.2813092489887884,
        -0.25523548095816173,
        0.42006715165156644,
        0.008119986867190183,
        0.14068199476779378,
        0.16522425586790596,
        1.015382783579087e-06,
        -0.19774866401601243
      ],
      [
        0.11647384937706615,
        -0.061704284565941916,
        7.301310359959566e-06,
        -0.149495571532463,
        0.002431927632731085,
        -0.0068092528214374805,
        -0.24142107034028903,
        -0.00011306429057145188,
        0.14669963268075759,
        0.02236166484807496
      ],
      [
        0.040988130520738394,
        -0.18171144744920767,
        -0.04566099944508672,
        0.001476210841608427,
        -0.2638912844012635,
        -0.1175482273599926,
        0.2384196939785432,
        -3.260918643042312e-05,
        0.2111833664341167,
        -0.03779869901525502
      ],
      [
        -0.032353551465728166,
        -0.24546568982257733,
        0.24900244734606405,
        -0.22802684051104097,
        0.12364194990040332,
        -0.2585170047108531,
        0.006084210030682628,
        0.03259083558929159,
        -0.1626781212047608,
        0.0039248461298207315
      ],
      [
        0.22778973152251616,
        -0.06511156559924097,
        -0.00020157824621715845,
        -5.341250912069644e-06,
        -0.02714844977259565,
        -0.1210216147173434,
        -0.038642542307919636,
        -0.009053171004641666,
        -0.12208769781821721,
        0.2421470874228175
      ],
      [
        0.2198968044315014,
        0.27238662063116303,
        -0.15119141581266363,
        0.0015354072848757043,
        0.22475361866744883,
        -0.039325473852578924,
        -0.528305980096904,
        0.166665043509718,
        0.21521584205591848,
        0.22426890643077202
      ],
      [
        0.23973181562998908,
        0.20705420652595521,
        0.7220077184812188,
        0.19223926329762037,
        -0.42433285158986855,
        0.005767637866249467,
        0.5347537865506641,
        -0.6011401164364559,
        -0.02102826377468722,
        -0.17488178965963502
      ],
      [
        0.007078992130695181,
        0.25993365802018653,
        0.5871755733289078,
        -0.0923366163469035,
        -0.2480952321755548,
        -0.15109295790495533,
        -0.0800475307966545,
        -0.2566071916761217,
        0.03422754537989956,
        -0.007658491327472628
      ],
      [
        -0.15111247628646035,
        -0.041449710829698755,
        -0.15044151586268706,
        0.0006123971322334631,
        8.779731360025596e-06,
        0.04953968113988207,
        0.2519251578009193,
        0.17547447268333122,
        0.0017388959474874542,
        0.25327566433791987
      ],
      [
        0.11335209260461593,
        0.4406956606100719,
        0.32525821230163815,
        -0.07060788629899487,
        0.37607511421720924,
        0.06024226880638818,
        0.06775448839781743,
        0.045974997246728086,
        -0.03053659455950429,
        -0.18430142475764152
      ]
    ],
    "layer_2_biases": [
      -0.3340122153095795,
      0.31947275498128885,
      0.09325679142109101,
      0.1434936780502094,
      -0.3597490464690185,
      -0.49220367684889155,
      0.3896666487389143,
      0.403093882743662,
      -0.43886602097061167,
      0.36139924542575197
    ],
    "output_weights": [
      [
        0.08422338080253314
      ],
      [
        0.12325282642309085
      ],
      [
        0.6332213246252621
      ],
      [
        0.343159829486816
      ],
      [
        -0.33074176223749935
      ],
      [
        0.11536884810539878
      ],
      [
        0.19536259322285976
      ],
      [
        -0.27507113724904775
      ],
      [
        0.22953520861791574
      ],
      [
        -0.6004800034810995
      ]
    ],
    "output_biases": [
      -0.4086778145020484
    ]
  }
}