{
  "mse": 0.0008790709049306002,
  "mae": 0.02274075627470805,
  "rmse": 0.029649129918609757,
  "r2": 0.9909206663390857,
  "mape": 53.49791257381826,
  "max_error": 0.10103738709825696,
  "bias": 0.0015125441477313918,
  "n_samples": 900,
  "coefficients": {
    "layer_1_weights": [
      [
        -0.04089691483679113,
        -0.7633161436814361,
        0.7344587118113193,
        0.5997654153286452,
        0.6353664820284836,
        0.5457247795225579,
        0.15331764231052236,
        0.7555474966391048,
        -0.05235604668327439,
        -0.41724168803270006
      ]
    ],
    "layer_1_biases": [
      0.18608091319044268,
      0.570315269132394,
      0.18743448310469024,
      0.33337166923365286,
      -0.21956613251735194,
      0.5688509349333141,
      -0.48522217720224337,
      -0.10138564148942421,
      0.6797767829695889,
      -0.2805413725686927
    ],
    "layer_2_weights": [
      [
        0.1387259277279769,
        0.23263273969768233,
        -0.13334744393979386,
        -0.16626269936267746,
        -0.2958597301632977,
        -0.13988064610614753,
        -0.07075025986221424,
        0.14274143743735943,
        0.2615828411029617,
        -0.48093935758622924
      ],
      [
        0.1392166861738074,
        0.18099831363236554,
        -0.37745290475557175,
        0.5984079267720912,
        -0.20477178549069788,
        -0.1884190751901129,
        0.3353104029882401,
        0.002734364349117331,
        -0.18996728614913255,
        0.1435466980479637
      ],
      [
        -0.4067300744371027,
        -0.010133051754952915,
        -0.45030975008214347,
        0.4134806085737669,
        0.012809036295840912,
        -0.31571270852918387,
        -0.021696569856596164,
        0.11308163554391777,
        0.06350021592697593,
        0.44924967171143043
      ],
      [
        -0.10839225092233859,
        0.08465957239126788,
        0.35122651033058155,
        -0.486611343314336,
        -7.520017548097847e-05,
        -0.027061312459409542,
        0.08619581670673591,
        -0.24644991091508933,
        -0.44046287552432173,
        -0.07799683498477165
      ],
      [
        0.04117563083436351,
        -0.19034800689531406,
        -0.5760386624860183,
        -0.42592509372438353,
        0.10209890973331852,
        -0.014920985839520572,
        -0.26323316298925253,
        -0.547723467228381,
        0.3574008966471821,
        0.513914705114046
      ],
      [
        -0.08998054114326214,
        0.4162616489456661,
        0.114955173737994,
        0.0706192580604411,
        -0.016305361752703,
        -0.02272431739707956,
        -0.04159358687923252,
        0.44926569328085825,
        0.21592215415711447,
        0.5348927991108867
      ],
      [
        0.015010008100371093,
        -0.2897182362856436,
        -0.23319502560437275,
        -0.32006765710649393,
        -0.17974086473309245,
        0.2810718325359523,
        0.1426952677716173,
        -0.011503542185050692,
        -0.274385061026353,
        0.12280550548090101
      ],
      [
        -0.10655285596305024,
        0.4255811238529305,
        -0.2107396267550114,
        0.10805349333527628,
        0.23959567733425732,
        0.06589485175644673,
        -0.04715984149989334,
        -0.48413518011068973,
        -0.3271525072563213,
        0.46317810183872443
      ],
      [
        -0.12341553849845767,
        0.28404303168353395,
        0.363074454604322,
        -0.003904726171232113,
        -0.0001482949197443427,
        0.3223197376297486,
        0.23724557002255856,
        -0.28365456280725576,
        -0.5540304431861658,
        0.17745789943573642
      ],
      [
        0.07132651829920574,
        0.09703981209434383,
        0.2985348189864693,
        0.0001326191271283249,
        -0.002538735624350204,
        0.19241166821313227,
        -0.25517705341952357,
        -0.05535672986565053,
        0.02334196881082917,
        0.2973142245406502
      ]
    ],
    "layer_2_biases": [
      0.5575536730599429,
      0.09482812777445758,
      -0.24059708951384137,
      0.10584101516759138,
      -0.4288145072536571,
      -0.00535863568116568,
      -0.5173840173439267,
      0.08615749062065481,
      0.431883602942697,
      0.22411190445000959
    ],
    "output_weights": [
      [
        -0.3810359157641378
      ],
      [
        -0.2657988955240126
      ],
      [
        -0.08352522076362093
      ],
      [
        -0.37452293831316497
      ],
      [
        -0.00782864855017278
      ],
      [
        -0.0736876366866608
      ],
      [
        -0.4690825043040492
      ],
      [
        -0.1395881007394088
      ],
      [
        -0.25069821980435286
      ],
      [
        0.6915733692665795
      ]
    ],
    "output_biases": [
      0.05007534456835558
    ]
  }
}