{
  "mse": 0.0002048796244662675,
  "mae": 0.009610661027603181,
  "rmse": 0.014313616750013516,
  "r2": 0.994137698407171,
  "mape": 714437.383215137,
  "max_error": 0.08319849385355366,
  "bias": -0.00030489428625360155,
  "n_samples": 2589,
  "coefficients": {
    "layer_1_weights": [
      [
        -0.5633061049503221,
        -0.010823334587419324,
        0.015711174250786223,
        0.47840233251907965,
        -0.09144658895644858,
        0.7434738775668122,
        0.31575169090337446,
        0.6920776315091256,
        -0.684494877382425,
        -0.036445130606872024
      ]
    ],
    "layer_1_biases": [
      0.5458893418516508,
      -0.24666432765035767,
      -0.7126671497302202,
      0.31919606876550727,
      0.2860284987795829,
      0.18422595119950058,
      0.6361152237704751,
      0.459724493154358,
      0.5293913999784761,
      -0.2705371540609349
    ],
    "layer_2_weights": [
      [
        0.3400239628424958,
        3.360484436438415e-05,
        0.3434893041664714,
        0.25304235780117146,
        0.3529886233774985,
        0.07101632571649272,
        -0.17156844003383598,
        0.1095200723472471,
        0.42133577829534796,
        -0.3829040343464647
      ],
      [
        -0.08316962895117003,
        0.1697242348859274,
        0.11508688800207781,
        0.030040158492817794,
        -0.1496776296471359,
        0.18100577461537568,
        -0.00010724422593467505,
        3.0784587470233254e-06,
        -0.024204762833558314,
        0.009411487859416279
      ],
      [
        -1.6330190419232224e-10,
        0.05440136980072356,
        -0.002321658248355431,
        4.633838871685878e-05,
        -0.008309890208706795,
        2.636229158238704e-06,
        0.012013705460839994,
        -0.0009896220201776466,
        0.020302154479566754,
        2.488765446253715e-06
      ],
      [
        -0.33466046954607287,
        -0.05730241770214859,
        -0.0874449634912173,
        -0.12413850949344876,
        -0.4832844554811822,
        -0.13424051994579736,
        0.19850179423915262,
        0.3604173944038455,
        0.28020811696668485,
        0.18333988573205082
      ],
      [
        -0.513034174507531,
        -0.0010679111683504403,
        0.017629890197316467,
        0.06870581773052209,
        -0.2874938852715644,
        0.1495638214090484,
        0.389080048316792,
        -0.36581852284680555,
        -0.03814335275188932,
        -0.143203264691796
      ],
      [
        0.3164892089381638,
        0.18516839733615237,
        -0.1457235339781752,
        -0.1555711198398589,
        0.04151640565562823,
        -0.02256595901950138,
        0.5250349540677393,
        -0.3459922376894992,
        -0.14596305097799617,
        0.07468648979445769
      ],
      [
        -0.5741528508239415,
        0.0005124160964293206,
        0.36573412823062856,
        0.3245514000273686,
        -0.3987064674522111,
        -0.15646544400501733,
        0.29812225294364736,
        0.31490936162891175,
        0.3203417503144223,
        -0.05580708996822373
      ],
      [
        -0.28092385086843,
        -0.11516327064284357,
        -0.054344666152954635,
        0.23200191717047627,
        -0.34337502146378496,
        0.15310427578605193,
        0.37550840525472956,
        0.23866779440369185,
        -0.008150857261791399,
        0.10900491052845933
      ],
      [
        0.0790887915098334,
        -0.1809190605239319,
        -0.12269696530742502,
        -0.12591936573441773,
        -0.15535410934608954,
        0.06496966646931912,
        -0.02213183419773043,
        0.321676151610897,
        -0.027569658196274088,
        -0.2286544898251561
      ],
      [
        0.003749367263532779,
        0.04512785002318258,
        -0.01047549563580818,
        0.0019468437519838428,
        0.004415686744128777,
        0.1693522430988173,
        -0.07319551326660052,
        1.108371555988034e-12,
        0.14888388526965746,
        0.0523303401912897
      ]
    ],
    "layer_2_biases": [
      0.45008789484175454,
      -0.45933133366003387,
      0.26385499403145757,
      0.3507216650981711,
      0.4514410861451331,
      0.13268925790150038,
      0.4855081128991084,
      -0.5418140625327821,
      0.12373626819195636,
      0.29327545442226366
    ],
    "output_weights": [
      [
        -0.31189206975709965
      ],
      [
        -0.06429147612313024
      ],
      [
        -0.099863219713351
      ],
      [
        -0.09156533722628629
      ],
      [
        -0.3305688194545808
      ],
      [
        -0.16129649292421136
      ],
      [
        0.7875442866701801
      ],
      [
        -0.5598386360124653
      ],
      [
        -0.5935466355244857
      ],
      [
        0.371067517000148
      ]
    ],
    "output_biases": [
      -0.3088986115900206
    ]
  }
}