{
  "mse": 0.0004104693783782416,
  "mae": 0.01451618073106597,
  "rmse": 0.0202600438888528,
  "r2": 0.9882550776001131,
  "mape": 2596058.092828034,
  "max_error": 0.13094144645686745,
  "bias": -0.0018683162929081832,
  "n_samples": 2589,
  "coefficients": {
    "layer_1_weights": [
      [
        0.4189248155983029,
        0.7072506759134385,
        -0.2735124992325478,
        -0.3540632767722854,
        0.10766152927578143,
        0.4669635600909086,
        -0.001664390385245007,
        -0.03206846722582161,
        -0.33018064367811123,
        -0.33107829784070403
      ]
    ],
    "layer_1_biases": [
      0.21968123884388643,
      -0.05289828801079701,
      -0.005024062953764298,
      -0.45746662203001054,
      0.8387613785154258,
      0.07513691857607181,
      -0.301411139281478,
      -0.05192846621781633,
      -0.5918880764213709,
      0.19533673076688363
    ],
    "layer_2_weights": [
      [
        0.5972455176913288,
        -0.018782575047163606,
        -0.05938020916451066,
        0.4330318530615247,
        0.3914456148322679,
        0.11868719588979866,
        0.16404294623695792,
        -0.34127079040030217,
        0.0006631918186127329,
        0.1360111982286129
      ],
      [
        -0.048809449156341236,
        0.6321439480060641,
        -0.5744244204372888,
        -0.4252006727250341,
        -0.6326539083369115,
        -0.2728255668195486,
        0.2713449332835724,
        -0.3570804504620133,
        -0.06682492674596327,
        -3.0468661079724035e-06
      ],
      [
        0.23977006831318268,
        -0.2162698284274123,
        -0.2881402738299511,
        -0.31078471934577984,
        -0.4038231867958738,
        -0.01926436411653444,
        0.10643419082720117,
        0.11520101858127474,
        -3.663819087421975e-05,
        0.20858910507976433
      ],
      [
        -0.10722542018778279,
        -0.24462977072705225,
        -0.23770337843496694,
        0.23024330629425632,
        -0.0009563445021475612,
        -0.11983683324823076,
        0.031502326698104675,
        -0.0016111986670108817,
        -0.003775006533971003,
        -0.01224368874099922
      ],
      [
        0.1334713976046715,
        0.6190501650362132,
        0.5069308637842593,
        -0.21560938825143566,
        0.2535490035447807,
        -0.07608703039477487,
        0.0012707513827828793,
        0.26607176316373804,
        -0.023241156114756613,
        -0.275739034912688
      ],
      [
        -0.13107715329298833,
        0.6038499969694021,
        -0.6769953912164404,
        -0.2711075927288944,
        -0.17076108103142149,
        0.13453611245950547,
        -0.00018635843677166234,
        0.05956831449135154,
        -0.04008374116109611,
        -0.15076798871480185
      ],
      [
        0.040157581332106757,
        8.129021603116609e-06,
        -0.15622347088037405,
        0.070159062138169,
        0.19411406888678295,
        0.051607310721205814,
        0.0011030341031420595,
        0.23659904618237568,
        0.09846067746965163,
        0.1704343735394471
      ],
      [
        0.26527110016403466,
        -0.07148210451381268,
        -0.004947600525485039,
        -0.1356405400441282,
        -0.062006485497909,
        -0.2625363925026847,
        0.012478006358066318,
        0.11179905001071616,
        -0.23334720496889624,
        -0.25662973631860225
      ],
      [
        0.039771773484975494,
        0.1489083960468676,
        0.25714806895723963,
        0.09072522239687518,
        0.20844494878447264,
        -0.00019292934834431286,
        -0.05130014820036118,
        0.2429804662444075,
        -0.0020205125529158636,
        0.12888732903964942
      ],
      [
        -0.30408103418205473,
        -0.39495086283500447,
        -0.3822511888033725,
        -0.3690753592795759,
        -0.09570228288820666,
        0.000924820538030782,
        0.0004615923216237981,
        0.5241834203451019,
        0.12040775983423214,
        0.05207463148177177
      ]
    ],
    "layer_2_biases": [
      0.1707941278807828,
      -0.42029957707577204,
      0.09760906856089885,
      0.36712448067119874,
      -0.021268013436906118,
      -0.032014685337381055,
      -0.4712904326245842,
      0.036236710408534004,
      -0.2363638042939823,
      -0.38637179635593444
    ],
    "output_weights": [
      [
        0.5053199008245947
      ],
      [
        0.2877834302359347
      ],
      [
        -0.2459449031396843
      ],
      [
        -0.4782273132314008
      ],
      [
        -0.30713229050775614
      ],
      [
        -0.4011539579152606
      ],
      [
        -0.11087894321933886
      ],
      [
        -0.8501958004756032
      ],
      [
        0.15060621764505935
      ],
      [
        -0.32047722565645065
      ]
    ],
    "output_biases": [
      0.3260452306001631
    ]
  }
}