{
  "mse": 0.0002686162427839078,
  "mae": 0.008504340608418436,
  "rmse": 0.016389516246183344,
  "r2": 0.992313977380454,
  "mape": 654634.4073801071,
  "max_error": 0.0761288396662082,
  "bias": -0.0021177262175797835,
  "n_samples": 2589,
  "coefficients": {
    "layer_1_weights": [
      [
        0.2618089850135384,
        0.7160029095117169,
        0.5108715878108386,
        -0.04513282935529513,
        0.0008519254216575435,
        0.38099160679066374,
        -0.5972172884963435,
        -0.1763369643977767,
        -0.22896279796854543,
        0.5677422233877119
      ]
    ],
    "layer_1_biases": [
      -0.20854429152431644,
      0.14697707976979485,
      -0.12174370917993482,
      -0.4279533279595655,
      -0.4719356765485507,
      0.004127299416311289,
      0.1101290109938488,
      -0.09119141049576551,
      -0.38576000456940174,
      0.17344698576693923
    ],
    "layer_2_weights": [
      [
        -0.056106944842795596,
        -0.011482448768268151,
        0.11273138339046695,
        0.10941600353828132,
        0.06058467419469691,
        -0.3202579210132596,
        0.00017107903378187067,
        -0.17559576859754006,
        -0.022652839035755164,
        0.0037253282505104093
      ],
      [
        0.5653557829770158,
        0.2154930522006241,
        -0.3305224965444921,
        -0.09977506928281586,
        -0.5884130709889563,
        -0.31925430226779555,
        -0.10798987513827847,
        -0.2869915139867309,
        -0.00010215623037308228,
        0.3068098686934545
      ],
      [
        0.3432906898960511,
        0.14721589286415285,
        0.3581320647018627,
        0.23490558961179597,
        0.22034873296511545,
        0.36360521832319054,
        0.0945738231575303,
        0.5740248849864712,
        -0.16258358208723023,
        0.1301188051400799
      ],
      [
        -0.08865540628445726,
        0.3456685860251148,
        -0.25672490498247136,
        -0.03961842267998037,
        0.008773551634741927,
        -0.024003572854615286,
        0.021126576568370303,
        -0.14893381518625418,
        0.19711910664996446,
        0.13948728880353364
      ],
      [
        -0.0007489682781008779,
        -0.0923396688556905,
        -0.03895462240127073,
        -0.24248819837917093,
        0.21881343211404186,
        -0.06893528845886054,
        -0.15940638188819176,
        0.3163246902012526,
        -0.10216385916255685,
        0.07387581991109997
      ],
      [
        0.3273782834799903,
        -0.04638741774244715,
        -0.2444806425431031,
        0.25547159412229226,
        -0.527444652605642,
        0.0035457218167137387,
        -0.26039336887779796,
        0.1699428566611135,
        0.0004974151517746077,
        0.15486433399682764
      ],
      [
        0.4387181891413455,
        -0.20696752295036147,
        -0.6209217765595829,
        -0.02447231407615161,
        -0.3068944718860221,
        0.448028050312282,
        -0.004380624758690814,
        0.32918611882929044,
        0.24107547352140893,
        -1.259878934513531e-05
      ],
      [
        -0.24577725687490837,
        -0.004552271836240133,
        -0.3322388506628662,
        0.2936309286755668,
        0.07285184349556308,
        -0.2683065586924385,
        0.33332090827680044,
        0.04761273811273827,
        0.030478114144191586,
        0.18304876994296862
      ],
      [
        -0.0430018349721698,
        0.1239538196521239,
        -0.2809150327461873,
        0.2866203436424017,
        -0.2800725558940151,
        0.10777503790467904,
        -0.3294435693530217,
        0.3292924726556087,
        -0.3396654365312924,
        -0.08802858927129666
      ],
      [
        -0.01503965232245359,
        0.3805790490914837,
        0.5646649617750463,
        -0.3187150327901403,
        0.2392764240849108,
        0.051692488780433886,
        -0.1977806271345947,
        0.1196768881989878,
        -0.011596020569785674,
        -0.25499985951656906
      ]
    ],
    "layer_2_biases": [
      -0.04263207018098187,
      0.2953784562091598,
      0.14752057765085963,
      -0.364580051866335,
      0.2967000672185691,
      0.08498064120718159,
      -0.4273776931562737,
      0.26471528354801993,
      -0.40184277732535045,
      -0.34049649700245965
    ],
    "output_weights": [
      [
        0.7837787732999658
      ],
      [
        0.5726234963484808
      ],
      [
        0.2299181202382348
      ],
      [
        0.0003042534035197265
      ],
      [
        -0.4898823153360954
      ],
      [
        -0.7009477832388299
      ],
      [
        0.41165389889630266
      ],
      [
        0.5436537432955941
      ],
      [
        -0.21304039306848835
      ],
      [
        0.4396340417547932
      ]
    ],
    "output_biases": [
      -0.2863289861598584
    ]
  }
}