{
  "mse": 0.0010449944422599173,
  "mae": 0.020955296498057756,
  "rmse": 0.03232637378766628,
  "r2": 0.9825114329095955,
  "mape": 2181.555848262439,
  "max_error": 0.13353657998391466,
  "bias": -0.005555741527381466,
  "n_samples": 1339,
  "coefficients": {
    "layer_1_weights": [
      [
        0.5533335438859541,
        0.15743367134399883,
        -0.7543014297516192,
        -0.1826204746909091,
        0.6143711892479595,
        0.20340047543553824,
        -0.3508680248595112,
        0.02032391669230716,
        0.40006524367851004,
        0.11590336475432465
      ]
    ],
    "layer_1_biases": [
      -0.5606176985157832,
      0.24893196587046565,
      0.7451031232740299,
      0.16647550332665018,
      -0.24502061751673848,
      -0.647952324104799,
      -0.29698326748630727,
      -0.7023256383383485,
      -0.6584080207523122,
      0.5520350376329343
    ],
    "layer_2_weights": [
      [
        0.3755185300958522,
        0.032189365160537685,
        0.13482727860529864,
        -0.3253587965796222,
        -0.1930408599089972,
        -0.4832452269345842,
        0.007889589796793871,
        0.23624724545975875,
        0.34212119514167133,
        0.11252583160574385
      ],
      [
        0.44099072325468935,
        0.4394022614769063,
        0.3400283950133517,
        0.43626737424645334,
        -0.007820370676000742,
        0.09224050334725749,
        0.035002955924755295,
        -0.17831256749989757,
        -0.3175090284987241,
        0.009283074018264498
      ],
      [
        0.421601700299367,
        -0.5775857633934575,
        -0.4033111946066058,
        0.34894808327517907,
        0.005661081897453808,
        -0.020356222280846534,
        0.2440555173105209,
        0.4501975782235772,
        -0.40731436421975964,
        2.16904125654577e-06
      ],
      [
        -0.3395425289435336,
        -0.5802377243621926,
        -0.5188125199263905,
        -0.4326034056642766,
        0.0013974212151675177,
        -0.02174629252855174,
        -0.07111269808948188,
        0.3764342052043856,
        0.1478560011756629,
        0.0545138873983395
      ],
      [
        0.10794383636803129,
        -0.18206334331993354,
        0.3711868214957378,
        -0.30305152466003044,
        -0.046477331779279214,
        0.06783779656643217,
        -0.00012577809398921593,
        0.15574305862621668,
        0.23188209896149398,
        0.08275389913168028
      ],
      [
        -0.1214753945015254,
        -0.1388955344627722,
        0.211212849408228,
        -0.08813761000862796,
        0.11488777919718828,
        0.057404039295719564,
        -0.0016957565737340317,
        7.810202279850143e-05,
        -0.21211838741451688,
        0.16027397453393685
      ],
      [
        -0.25872422080369356,
        0.003044886881564329,
        -0.1931485649648515,
        0.06130012463167993,
        -0.1360126477764187,
        0.002795471374056804,
        0.18905416270663442,
        -0.29440423434562696,
        0.265294914129495,
        -0.011649315540626568
      ],
      [
        0.03720653223748604,
        0.011193022530914018,
        0.08857504988739699,
        0.2635416470901044,
        -5.31268379935688e-07,
        0.06854429304358177,
        -0.13252318071445665,
        0.22703798809732303,
        -0.0025123337659894813,
        0.18002146647306141
      ],
      [
        -0.0019829919699328263,
        -0.0018747891619183598,
        -0.04618659159305136,
        0.25287428100077847,
        -0.09717955173475237,
        -0.1409089147383758,
        -0.07479336183187822,
        -0.016068441044663647,
        -0.3240851622013155,
        0.03255821495399639
      ],
      [
        -0.12622613644069122,
        -0.1220290840736939,
        -0.45032437496103345,
        0.19353615064988142,
        6.56856862754636e-08,
        0.28747897966099367,
        0.07578262554075872,
        -0.37332629159272057,
        0.21216646137434822,
        -0.22374488163905995
      ]
    ],
    "layer_2_biases": [
      0.1917253887261175,
      0.49415918711188195,
      0.021744121462566747,
      0.3786829522651477,
      -0.05359422287648574,
      0.15300928562065735,
      -0.5139223870597153,
      0.14039535932697733,
      0.4481789757754362,
      -0.5474823461146625
    ],
    "output_weights": [
      [
        -0.07232126242162368
      ],
      [
        0.6314518404485682
      ],
      [
        -0.2831644677578599
      ],
      [
        -0.3704824486805513
      ],
      [
        -1.6256553205175972e-05
      ],
      [
        0.66958199982661
      ],
      [
        0.2359608424101905
      ],
      [
        -0.8227584728934109
      ],
      [
        0.06040329060046892
      ],
      [
        0.3715606448147024
      ]
    ],
    "output_biases": [
      0.3475761980830348
    ]
  }
}