{
  "mse": 0.00029657410450481823,
  "mae": 0.011223994357628856,
  "rmse": 0.01722132702508196,
  "r2": 0.9950366663073419,
  "mape": 300.4567041643535,
  "max_error": 0.10708207676771095,
  "bias": -0.00014952757424340266,
  "n_samples": 1339,
  "coefficients": {
    "layer_1_weights": [
      [
        -0.006183214125731973,
        -0.25682838623391907,
        -0.5797024472892255,
        -0.04216766458885721,
        0.6682639025688121,
        -0.43187391834771494,
        -0.3095469293702835,
        0.42680748122602236,
        0.6867353789734862,
        0.15325610803782477
      ]
    ],
    "layer_1_biases": [
      -0.5260581882786363,
      -0.16026754586396996,
      0.6411209902290392,
      0.022391579197648386,
      0.7625054532302152,
      -0.5762133286640334,
      0.1512083789201123,
      0.04625868758623181,
      0.535370484888279,
      0.00525852791972295
    ],
    "layer_2_weights": [
      [
        0.011817731775946127,
        0.3151173082085887,
        -0.00015580543318075804,
        -0.020812055887741623,
        0.19024240308865484,
        0.02905682692460855,
        -0.19639572749798506,
        0.04320612462664067,
        0.04811622155806001,
        0.0019728039545215794
      ],
      [
        -0.27192248327537066,
        0.0599903065796453,
        -0.04526000585132672,
        -0.0854451923700563,
        -0.13013731032148254,
        -0.3620436441205768,
        0.31685568511669215,
        -0.14668009174563204,
        -0.15121159156295158,
        -0.11272312546878462
      ],
      [
        -0.010891376450125256,
        -0.4786054709141728,
        -0.3220621627343501,
        -0.3951495925815395,
        0.09112131239530268,
        0.18983968376460617,
        -0.03574551357553387,
        -0.4595628715020772,
        -0.023561684877599506,
        0.07166155029492663
      ],
      [
        -0.3252884882415885,
        -0.4420388705870812,
        -0.019765084929142876,
        -0.3951809814609497,
        -0.12740275867076972,
        0.025085929912655805,
        0.3661089358555771,
        0.046216567068316304,
        -0.18753932361668774,
        -0.4594967002528696
      ],
      [
        0.05352524506778392,
        -0.11816190884910996,
        0.4298368919043649,
        0.2056727479091673,
        0.3557054813795481,
        0.14357706220495406,
        0.14195185400570517,
        0.1318765964093009,
        0.05561805633854052,
        0.3146403001550192
      ],
      [
        0.298261013434033,
        -0.38759830250778693,
        0.04097945646424387,
        0.035670163135482415,
        0.12700852390655157,
        0.07422298253187015,
        0.03017435901529776,
        0.3294824123545296,
        -0.008915569400820108,
        0.1407573161299564
      ],
      [
        0.3972243499759749,
        -0.06244813376083328,
        0.1960983319609808,
        -0.00728895653150486,
        -0.46011809162160483,
        0.17672267153564294,
        -0.17032490180031498,
        0.3471520608784024,
        -0.05051312613438556,
        0.5105650642763412
      ],
      [
        -0.15167454865079566,
        0.40597945343512754,
        -0.38194952412935307,
        -0.08361931294155281,
        -0.3724345731266811,
        0.03504149797419282,
        -0.11374364665457849,
        -0.416476832611805,
        0.01807683336863033,
        -0.4830861099853387
      ],
      [
        -0.10770936254296336,
        -0.2590351286785524,
        -0.006657953752214152,
        0.400933451596867,
        0.19569459567033423,
        -0.3026100982917209,
        -0.3338503360921588,
        0.47203774091717904,
        -0.12234507169390327,
        -0.48055117175704953
      ],
      [
        0.14198010937479685,
        0.2946309105647065,
        -0.6075581965926378,
        0.3901984017198955,
        0.13298671230703416,
        -0.19357325814297535,
        0.4134442423709855,
        0.3107549523997673,
        0.013135511798508514,
        -0.11343205516821209
      ]
    ],
    "layer_2_biases": [
      -0.2842616293021692,
      0.5519272602606103,
      0.35935465212440154,
      -0.10710762760035894,
      -0.26348533285597436,
      0.2546790490265551,
      -0.2906792169422617,
      0.3210832648772857,
      -0.019451481448549357,
      0.32036475615524906
    ],
    "output_weights": [
      [
        -0.34195323059385396
      ],
      [
        0.34031952717747566
      ],
      [
        -0.4613064997021299
      ],
      [
        0.38199922102814693
      ],
      [
        0.6021534882639095
      ],
      [
        0.4248915140035707
      ],
      [
        0.4185674945874327
      ],
      [
        0.6895265873801371
      ],
      [
        -0.10196696638230664
      ],
      [
        -0.5510062334855413
      ]
    ],
    "output_biases": [
      -0.04862336363138955
    ]
  }
}