{
  "mse": 0.001573401900017572,
  "mae": 0.03326926286684493,
  "rmse": 0.039666130388753225,
  "r2": 0.9736682382452488,
  "mape": 5756.036547362626,
  "max_error": 0.20829930068615188,
  "bias": 0.0011348055981700185,
  "n_samples": 1339,
  "coefficients": {
    "layer_1_weights": [
      [
        0.8123574450850771,
        -0.09215790817882383,
        -0.25019741466678275,
        -0.36415387882794,
        -0.23472433391210276,
        0.6586365257483883,
        0.023599944526894668,
        0.7021691504929513,
        -0.04589619411148604,
        0.04381546802534151
      ]
    ],
    "layer_1_biases": [
      -0.09259434427163149,
      -0.17869196872168924,
      -0.23126825201419487,
      0.34390189881460725,
      -0.5164687065804876,
      -0.14108933240900448,
      -0.6004694246401171,
      0.05022997976190417,
      -0.1869525576641331,
      -0.6730564415225895
    ],
    "layer_2_weights": [
      [
        -0.27237889320642644,
        0.12475079271537472,
        0.19422455170822303,
        -0.21541679244131692,
        -0.08582004957425715,
        0.21086331150378468,
        -0.6892463599325565,
        0.23122269589471597,
        0.00309226399866816,
        0.3951388785712274
      ],
      [
        -0.07113594634518,
        0.2243928046477467,
        -0.3094440105846963,
        -0.07248946896552452,
        -0.16937281194549406,
        0.23719461646918671,
        0.2573058828058881,
        0.03044408965055098,
        -0.11943862214451355,
        0.03475271662019796
      ],
      [
        -0.23284631414318213,
        0.14760031283891714,
        0.07817008281591765,
        -0.14623780904007908,
        0.11841855485060729,
        0.12560911590169277,
        0.005705874811413766,
        -0.0006252227768755826,
        0.00014997074377006195,
        -8.185728853638711e-08
      ],
      [
        -0.5053054838408275,
        0.0541854899881136,
        -0.026848406309889924,
        -0.04074337638967964,
        0.23774780435622325,
        0.022531302403509992,
        0.5634051044249643,
        -0.234344475933808,
        -0.007827559279696491,
        0.15799411464679686
      ],
      [
        -0.2957657943813924,
        0.1258810189062564,
        -0.2643059204463367,
        -3.6967128742116435e-06,
        -0.26181719393423386,
        0.00422601951857681,
        -0.18906369532274084,
        -0.3192975199300963,
        5.95498517163538e-06,
        0.023018894200956336
      ],
      [
        -0.5847874839303736,
        -0.08943331341844465,
        -0.3238426300102409,
        0.3191742476605175,
        -0.01876366203216177,
        -0.10934975659296739,
        0.045974389385943455,
        4.400596931675602e-05,
        -0.06773229478419641,
        0.6833384632289647
      ],
      [
        -1.738663765309101e-06,
        8.052663258599832e-06,
        0.010577879720481163,
        0.06295998778172462,
        -0.27942787459186674,
        -0.185254693624032,
        -0.16951004109612397,
        -0.004262916128979994,
        -0.14961334599126747,
        1.625034226877935e-06
      ],
      [
        -0.14917300422501173,
        -0.11892010908269947,
        -0.0019068995587734918,
        0.27371266023486046,
        0.021490835679136247,
        0.30174906006805885,
        -0.05271294903990063,
        -0.07051644118572804,
        -0.012877733767938559,
        0.23937491541270084
      ],
      [
        0.16355924164601607,
        -0.23128906643537742,
        -0.26334053720187156,
        0.0726018654020942,
        0.02273525260184388,
        0.19871868487052605,
        0.02010650340609734,
        -0.11041655609202596,
        -0.044833854363786056,
        -0.10896604808555371
      ],
      [
        -0.29051513519321576,
        0.03592385001916626,
        -0.20040676575753605,
        0.06994292845898928,
        -0.23394872454798674,
        0.0035940213026744356,
        -0.1790830995647854,
        0.10705587906494693,
        -0.015545701860388846,
        0.058237067049620006
      ]
    ],
    "layer_2_biases": [
      0.3733675961361051,
      -0.13957085241720885,
      -0.13811316287440295,
      0.30051337809506834,
      0.6190921010304798,
      -0.4899275525791166,
      -0.023926964423417706,
      -0.4283450202055662,
      -0.07572360784522819,
      0.4362226905702453
    ],
    "output_weights": [
      [
        -0.5975111142497919
      ],
      [
        -0.2360287050576302
      ],
      [
        0.0014439888279735877
      ],
      [
        0.20105012214587012
      ],
      [
        0.20593911806419674
      ],
      [
        0.1569649419154769
      ],
      [
        -0.766972346553822
      ],
      [
        -7.42423151174025e-05
      ],
      [
        8.298253287548967e-07
      ],
      [
        0.7201230545601328
      ]
    ],
    "output_biases": [
      -0.2838030332293648
    ]
  }
}