{
  "mse": 0.0016237812802543617,
  "mae": 0.02869195158771257,
  "rmse": 0.04029616954816378,
  "r2": 0.9779604697873705,
  "mape": 173.7588285362617,
  "max_error": 0.2039700388671466,
  "bias": -0.007209191176443289,
  "n_samples": 1300,
  "coefficients": {
    "layer_1_weights": [
      [
        -0.5398194454851732,
        0.7662929355183089,
        0.021207602300797507,
        -0.2723657325503546,
        2.671726539010314e-05,
        0.019416088034715184,
        -0.0017350102968946846,
        0.5799663459743822,
        0.17693001226351973,
        -2.7258453622702676e-05
      ]
    ],
    "layer_1_biases": [
      0.2811636695652739,
      0.10125730169815589,
      0.34695996722979383,
      0.337306697867114,
      -0.6955541908757257,
      -0.5501272334688496,
      -0.1315446150222993,
      0.5500784689848653,
      -0.5617800313749703,
      -0.42579602128559335
    ],
    "layer_2_weights": [
      [
        -0.287315807155515,
        0.14854071532727156,
        0.14416033198883352,
        -0.051369479487635504,
        -0.052128266275322084,
        0.15694417802877586,
        5.207985651371684e-06,
        0.4661856012076255,
        0.2243608239114373,
        -0.4411704472906361
      ],
      [
        0.1608162513185595,
        -0.3728951975334314,
        0.060192257722573875,
        -0.24350752594234856,
        -0.0006691251851458805,
        1.1238063035780028,
        -0.13985561430703883,
        -0.9753249140046452,
        -0.05314678607325565,
        -0.30844139119035574
      ],
      [
        -0.4368879635514524,
        0.23612946475930058,
        0.5716558173934843,
        -0.31765086438245244,
        0.10102749334090026,
        -0.056401804116967894,
        -0.11732524701086999,
        0.1958802041862205,
        0.012057944942927798,
        -0.5726296415469414
      ],
      [
        0.29134947837886,
        0.34606233606150305,
        0.43577846007380117,
        0.25336269301255104,
        9.133411334505367e-10,
        -0.563154495908437,
        -6.807634871615413e-08,
        0.5382814038894163,
        5.877819135730547e-12,
        -0.13949312439529624
      ],
      [
        0.09421366505911628,
        0.026034911828024553,
        -0.1822298647758636,
        0.002640572975121701,
        -0.05430309730276502,
        -0.13021766397958742,
        -0.18660630404098313,
        -0.03064146457541455,
        0.00021106568361620515,
        0.22925413893786506
      ],
      [
        0.05646096382931805,
        0.03920320043748905,
        0.07572996239187367,
        1.715585365019589e-08,
        -0.01359739421424658,
        0.03969640493034453,
        -0.06508163371249062,
        -0.07152360027428312,
        -1.543934513257047e-11,
        0.06586536991314736
      ],
      [
        -3.960137303697853e-07,
        -0.022361961396470443,
        -0.010569511667862942,
        0.18068557435760285,
        -3.89794693954831e-09,
        -0.001240033612393782,
        -0.039764055905537096,
        0.12117207528363852,
        -0.1484177145546107,
        0.12684567348103695
      ],
      [
        0.06373282054210698,
        -0.3689234776479347,
        -0.34082651202999115,
        0.44609628148052266,
        5.869950810009985e-09,
        0.6945085485838911,
        -0.007856047190359662,
        0.17026215851801935,
        -2.183498560963034e-05,
        0.33693956564225447
      ],
      [
        7.669886405742608e-06,
        0.008454862758718533,
        -0.1523445971822301,
        -0.03723192368166324,
        -0.004087065178368762,
        -0.0009232089708485713,
        -0.0067645706609030815,
        4.5153090946507784e-05,
        -1.18590823022571e-10,
        -0.038608183874153504
      ],
      [
        0.06265492435045082,
        -0.22385187858653324,
        0.2104119098122476,
        9.149284588519172e-05,
        9.374668643280575e-10,
        0.00047064337303443404,
        -0.00552132333630046,
        0.17315628377078449,
        -0.14706689471220574,
        -0.021077334345130545
      ]
    ],
    "layer_2_biases": [
      -0.0664793722585196,
      0.45154925039336574,
      0.4769148403792245,
      -0.3553477419007061,
      -0.2355393944306401,
      0.3577254313846118,
      -0.06019069043411496,
      0.3442045341838878,
      -0.41382100020955614,
      -0.0584780312669537
    ],
    "output_weights": [
      [
        -0.47419989851995326
      ],
      [
        -0.8588687021551259
      ],
      [
        0.5734377565769565
      ],
      [
        -0.36696718144960855
      ],
      [
        -0.029388735698738174
      ],
      [
        0.2859811597644102
      ],
      [
        0.04418915925737102
      ],
      [
        -0.23840517056782687
      ],
      [
        0.044003189349238296
      ],
      [
        -0.493098529362165
      ]
    ],
    "output_biases": [
      -0.015305495187058066
    ]
  }
}