{
  "mse": 0.001406906848994775,
  "mae": 0.028391101456197516,
  "rmse": 0.03750875696413805,
  "r2": 0.9809040993501794,
  "mape": 251.16867380611026,
  "max_error": 0.1339135735561725,
  "bias": -0.00361201122391104,
  "n_samples": 1300,
  "coefficients": {
    "layer_1_weights": [
      [
        0.5801580046087313,
        -0.6900052554358411,
        0.09925150266034773,
        -0.00014341382803292622,
        0.5522380271288495,
        0.09770008992891356,
        0.22215445304757475,
        0.3023465280163573,
        0.7778646194360621,
        4.441041271378938e-10
      ]
    ],
    "layer_1_biases": [
      0.07607262460847858,
      0.6020261273182416,
      -0.7207138241304638,
      -0.036707670970856254,
      0.4996457656495153,
      -0.46179421413551075,
      0.5410085737590948,
      -0.27068797961455426,
      0.10589613017016306,
      -0.20436849176344007
    ],
    "layer_2_weights": [
      [
        -0.09755505462846345,
        0.16811816208289979,
        0.23805321457503675,
        -0.10449858092426767,
        -0.392206239097724,
        -0.08557797702696794,
        0.30973110102836204,
        -0.2786215004069301,
        0.3418119864822375,
        0.5375597796270108
      ],
      [
        -0.09003009534693596,
        -0.19012175795611067,
        0.0005860242639338992,
        0.4634624755282674,
        0.4329627757223123,
        0.15790946015966517,
        -0.006185747115414507,
        -0.3902961320545638,
        0.4698699570966467,
        -0.5055171345882226
      ],
      [
        -6.984136085421414e-06,
        2.7330779145690743e-08,
        0.1270709757669217,
        -0.1878025878797844,
        0.20774988612811943,
        0.04887205850619001,
        0.000162779202719465,
        -5.0912660480110765e-05,
        0.20925818094038104,
        0.24211709017332952
      ],
      [
        -0.010320982139935854,
        -1.2641177844846945e-09,
        0.06145625436039019,
        0.11076424938317361,
        0.13255628026521804,
        0.15257557892246476,
        0.002617757470648007,
        0.04360950206972379,
        0.22366619609446597,
        -0.2602223635725142
      ],
      [
        -0.24048006180597561,
        -0.2969819805529739,
        -0.03085276516118681,
        -0.23694440597987446,
        0.17268198121862202,
        0.2339774124528292,
        -0.13282564877289624,
        0.019038285102903153,
        -0.3693578509887553,
        0.4189536443976744
      ],
      [
        -0.0010100479002623723,
        0.16968247291205865,
        2.165093692119764e-09,
        0.003496470356439229,
        0.12462443633270487,
        0.07145048281223228,
        -0.15226836563977772,
        0.11089379082865268,
        0.09798117408987918,
        -0.03269618954300657
      ],
      [
        -0.29250528092241096,
        0.2230536936466635,
        -0.14580726538626568,
        -0.27032203044322745,
        -0.41202513465012564,
        -0.3313677137129673,
        -0.359090397770622,
        -0.1909084145080073,
        0.5011079880277083,
        0.5084802638778196
      ],
      [
        0.21554739758313568,
        -0.01705582166164656,
        0.13882169053223176,
        -0.2559343602048865,
        -0.49369286811194324,
        0.4505171015534221,
        -0.009385477407430712,
        0.23620149788426642,
        -0.3949821420696304,
        0.1167406732488945
      ],
      [
        0.19451807363472753,
        0.2503842481637153,
        0.21434212625554472,
        0.29960608441037573,
        0.22785247405951325,
        0.49351224313136194,
        0.05501536842031906,
        0.27252049361511194,
        0.020297774929576295,
        0.3767113510232353
      ],
      [
        -0.22105068224452865,
        0.20053733398410947,
        0.013516106543488142,
        -0.23940239688048084,
        0.07080011429426451,
        -0.15533514025572184,
        0.00356709018946822,
        -0.005829712351834481,
        -0.008206947076712049,
        -0.31178259926091906
      ]
    ],
    "layer_2_biases": [
      -0.5367224324487916,
      -0.34470929312053533,
      -0.3852108981070097,
      0.1795869531586626,
      0.07118686695314017,
      -0.3712106723284648,
      0.13117702004236745,
      -0.08738112011033372,
      0.5884153986111359,
      -0.24623155469098645
    ],
    "output_weights": [
      [
        -0.10524887835584847
      ],
      [
        -0.15563698580047627
      ],
      [
        2.1358521152976426e-09
      ],
      [
        -0.6323544581144822
      ],
      [
        -0.17493585874911002
      ],
      [
        -0.17202941637359243
      ],
      [
        -0.0017135636421551379
      ],
      [
        -0.48397276789907745
      ],
      [
        0.5192386012468594
      ],
      [
        0.6263178828795678
      ]
    ],
    "output_biases": [
      -0.3318489647075982
    ]
  }
}