{
  "mse": 0.0026429609908771995,
  "mae": 0.035422071184006386,
  "rmse": 0.05140973634319864,
  "r2": 0.9641271769064153,
  "mape": 320.82783577993206,
  "max_error": 0.27177092990216956,
  "bias": -0.008982079194672152,
  "n_samples": 1300,
  "coefficients": {
    "layer_1_weights": [
      [
        0.7729265724655728,
        0.00012428458481199197,
        -0.5102945734848928,
        -0.00016709625866290827,
        0.10346236878563062,
        0.5292518911020796,
        -0.6907099016326624,
        0.0042706364577547225,
        -0.0033688170360184552,
        3.090951587181911e-05
      ]
    ],
    "layer_1_biases": [
      -1.9667045065973116e-05,
      -0.5038666860506208,
      0.36452283511269223,
      -0.2964425671153069,
      -0.3609817959572391,
      0.23124859277386758,
      -0.011677472818839586,
      -0.30063696033666787,
      -0.5989185803880794,
      -0.28025165559502485
    ],
    "layer_2_weights": [
      [
        0.5279995445920421,
        0.217622955898797,
        -0.023120307253383817,
        0.02526281043281402,
        -0.4885145396567117,
        -0.24770735352787235,
        0.3024018179533492,
        -0.023474052218491016,
        0.23171433343101955,
        -0.2609651789656447
      ],
      [
        0.13259132674541824,
        0.020231632902557285,
        -0.20515719026270726,
        0.11953139026643869,
        1.8636297777412976e-12,
        -0.00528512167875515,
        -0.018073816205291294,
        -0.11033307776187434,
        0.19368143641328908,
        0.19941178369540286
      ],
      [
        -0.3891888372074151,
        0.14430962649908669,
        1.6392611336064618e-08,
        0.6614243244169137,
        0.7684148439960327,
        0.20401334072860813,
        -0.26021070065418467,
        0.21374491587940356,
        0.00524684933718231,
        0.6600426003271721
      ],
      [
        0.0001087200656643379,
        -0.06420828444808271,
        -0.07962727683606358,
        0.00021425080989532838,
        4.2825807588391394e-05,
        0.0819904623694098,
        0.037366171891740206,
        0.20148800464480054,
        -0.23228666600117218,
        0.2344870091180683
      ],
      [
        -0.10628336842415245,
        -6.17597482937648e-08,
        0.0033373548286948366,
        3.0834924861798437e-05,
        0.262077117858187,
        0.11500007991316157,
        -0.18817972513527917,
        -0.027596825274203304,
        -2.4150519320407845e-05,
        -0.24425255808716045
      ],
      [
        0.0031695332901190937,
        0.4631825772525294,
        -0.13278742541744384,
        -0.21006587896766396,
        0.18042363899478586,
        0.006568320913976698,
        -0.5775433046147159,
        0.24111528331146923,
        -0.00038581837114375783,
        -0.44419675099369765
      ],
      [
        -0.10995317688476125,
        -0.05727871290715284,
        0.15650536561156908,
        -0.5329719503253243,
        -0.4285046129727606,
        6.195936757599023e-05,
        0.0804646052113861,
        -0.12139576649621535,
        -0.019696581786422324,
        -0.13662469067311125
      ],
      [
        0.003287072064654286,
        -0.00012018194546695075,
        -0.06403047837886736,
        0.08642801223358654,
        0.20886534119615058,
        -0.24092212744269695,
        -0.0078031629968093475,
        0.15591848276981032,
        -0.05159532351466533,
        -0.05135136046690489
      ],
      [
        0.02158078391061871,
        0.022843561651073693,
        0.003945923598737877,
        -0.0031236772644416,
        -0.19613257276174995,
        -0.09314924381314718,
        0.12978914010018988,
        -0.01892124360328979,
        -0.16798494399771968,
        0.048577135876283914
      ],
      [
        0.039923393656002386,
        0.012665069811775776,
        0.1884125999035497,
        -0.011958412332229164,
        0.18114151289676259,
        -0.1148205575710237,
        0.19570441476327685,
        0.20636185705819968,
        0.19001782372560866,
        0.001432794154042867
      ]
    ],
    "layer_2_biases": [
      0.29544688014659,
      -0.5202793117857872,
      -0.520603519154076,
      0.10510348394843373,
      0.13549267021927996,
      -0.49762438044145546,
      0.12660385274543418,
      -0.3960230456462265,
      -0.3963843606545591,
      0.379423182302003
    ],
    "output_weights": [
      [
        0.3227702631737992
      ],
      [
        -0.6243721061185638
      ],
      [
        0.29164618490439026
      ],
      [
        -0.13052635996170348
      ],
      [
        -0.8778754688201833
      ],
      [
        -4.927929910446514e-12
      ],
      [
        0.3480281490860958
      ],
      [
        -0.016184981052753806
      ],
      [
        -0.09024194181664544
      ],
      [
        -0.14752667892612087
      ]
    ],
    "output_biases": [
      0.48998284529043523
    ]
  }
}